network "ScenarioDeductionBN" {
// written by aGrUM 0.22.9
}

variable ScenarioResilience {
   type discrete[2] {0, 1};
}

variable AbsorptionCapacity {
   type discrete[2] {0, 1};
}

variable AdaptionCapacity {
   type discrete[2] {0, 1};
}

variable RecoveryCapacity {
   type discrete[2] {0, 1};
}

variable casualties {
   type discrete[2] {0, 1};
}

variable emergencyType {
   type discrete[3] {0, 1, 2};
}

variable roadPassibility {
   type discrete[2] {0, 1};
}

variable roadLoss {
   type discrete[2] {0, 1};
}

variable AidResource {
   type discrete[2] {0, 1};
}

variable TowResource {
   type discrete[2] {0, 1};
}

variable FirefightingResource {
   type discrete[2] {0, 1};
}

variable RescueResource {
   type discrete[2] {0, 1};
}

variable disposalDuration {
   type discrete[4] {0, 1, 2, 3};
}

variable emergencyPeriod {
   type discrete[4] {0, 1, 2, 3};
}

variable responseDuration {
   type discrete[4] {0, 1, 2, 3};
}

probability (ScenarioResilience | AbsorptionCapacity, AdaptionCapacity, RecoveryCapacity) {
   (0, 0, 0) 0.573472 0.426528;
   (1, 0, 0) 0.699256 0.300744;
   (0, 1, 0) 0.641467 0.358533;
   (1, 1, 0) 0.659224 0.340776;
   (0, 0, 1) 0.643403 0.356597;
   (1, 0, 1) 0.579622 0.420378;
   (0, 1, 1) 0.562104 0.437896;
   (1, 1, 1) 0.600143 0.399857;
}
probability (AbsorptionCapacity | roadPassibility, roadLoss) {
   (0, 0) 0.570576 0.429424;
   (1, 0) 0.613096 0.386904;
   (0, 1) 0.523999 0.476001;
   (1, 1) 0.552394 0.447606;
}
probability (AdaptionCapacity | emergencyType, emergencyPeriod) {
   (0, 0) 0.64449 0.35551;
   (1, 0) 0.567364 0.432636;
   (2, 0) 0.427528 0.572472;
   (0, 1) 0.624191 0.375809;
   (1, 1) 0.558473 0.441527;
   (2, 1) 0.607978 0.392022;
   (0, 2) 0.665867 0.334133;
   (1, 2) 0.416333 0.583667;
   (2, 2) 0.56738 0.43262;
   (0, 3) 0.675574 0.324426;
   (1, 3) 0.782568 0.217432;
   (2, 3) 0.663988 0.336012;
}
probability (RecoveryCapacity | casualties, AidResource, TowResource, FirefightingResource, RescueResource, disposalDuration, responseDuration) {
   (0, 0, 0, 0, 0, 0, 0) 0.736308 0.263692;
   (1, 0, 0, 0, 0, 0, 0) 0.369868 0.630132;
   (0, 1, 0, 0, 0, 0, 0) 0.639946 0.360054;
   (1, 1, 0, 0, 0, 0, 0) 0.706167 0.293833;
   (0, 0, 1, 0, 0, 0, 0) 0.824601 0.175399;
   (1, 0, 1, 0, 0, 0, 0) 0.317805 0.682195;
   (0, 1, 1, 0, 0, 0, 0) 0.570963 0.429037;
   (1, 1, 1, 0, 0, 0, 0) 0.572486 0.427514;
   (0, 0, 0, 1, 0, 0, 0) 0.691129 0.308871;
   (1, 0, 0, 1, 0, 0, 0) 0.513502 0.486498;
   (0, 1, 0, 1, 0, 0, 0) 0.56724 0.43276;
   (1, 1, 0, 1, 0, 0, 0) 0.57702 0.42298;
   (0, 0, 1, 1, 0, 0, 0) 0.676465 0.323535;
   (1, 0, 1, 1, 0, 0, 0) 0.626013 0.373987;
   (0, 1, 1, 1, 0, 0, 0) 0.668884 0.331116;
   (1, 1, 1, 1, 0, 0, 0) 0.700971 0.299029;
   (0, 0, 0, 0, 1, 0, 0) 0.73539 0.26461;
   (1, 0, 0, 0, 1, 0, 0) 0.584349 0.415651;
   (0, 1, 0, 0, 1, 0, 0) 0.422887 0.577113;
   (1, 1, 0, 0, 1, 0, 0) 0.532164 0.467836;
   (0, 0, 1, 0, 1, 0, 0) 0.605919 0.394081;
   (1, 0, 1, 0, 1, 0, 0) 0.597232 0.402768;
   (0, 1, 1, 0, 1, 0, 0) 0.624379 0.375621;
   (1, 1, 1, 0, 1, 0, 0) 0.663717 0.336283;
   (0, 0, 0, 1, 1, 0, 0) 0.728551 0.271449;
   (1, 0, 0, 1, 1, 0, 0) 0.56312 0.43688;
   (0, 1, 0, 1, 1, 0, 0) 0.714021 0.285979;
   (1, 1, 0, 1, 1, 0, 0) 0.802163 0.197837;
   (0, 0, 1, 1, 1, 0, 0) 0.569436 0.430564;
   (1, 0, 1, 1, 1, 0, 0) 0.654863 0.345137;
   (0, 1, 1, 1, 1, 0, 0) 0.691388 0.308612;
   (1, 1, 1, 1, 1, 0, 0) 0.444233 0.555767;
   (0, 0, 0, 0, 0, 1, 0) 0.655885 0.344115;
   (1, 0, 0, 0, 0, 1, 0) 0.639242 0.360758;
   (0, 1, 0, 0, 0, 1, 0) 0.609773 0.390227;
   (1, 1, 0, 0, 0, 1, 0) 0.510861 0.489139;
   (0, 0, 1, 0, 0, 1, 0) 0.411886 0.588114;
   (1, 0, 1, 0, 0, 1, 0) 0.679854 0.320146;
   (0, 1, 1, 0, 0, 1, 0) 0.578513 0.421487;
   (1, 1, 1, 0, 0, 1, 0) 0.768929 0.231071;
   (0, 0, 0, 1, 0, 1, 0) 0.79422 0.20578;
   (1, 0, 0, 1, 0, 1, 0) 0.736689 0.263311;
   (0, 1, 0, 1, 0, 1, 0) 0.566396 0.433604;
   (1, 1, 0, 1, 0, 1, 0) 0.658582 0.341418;
   (0, 0, 1, 1, 0, 1, 0) 0.481432 0.518568;
   (1, 0, 1, 1, 0, 1, 0) 0.546199 0.453801;
   (0, 1, 1, 1, 0, 1, 0) 0.700326 0.299674;
   (1, 1, 1, 1, 0, 1, 0) 0.48563 0.51437;
   (0, 0, 0, 0, 1, 1, 0) 0.77779 0.22221;
   (1, 0, 0, 0, 1, 1, 0) 0.733559 0.266441;
   (0, 1, 0, 0, 1, 1, 0) 0.618194 0.381806;
   (1, 1, 0, 0, 1, 1, 0) 0.601989 0.398011;
   (0, 0, 1, 0, 1, 1, 0) 0.599347 0.400653;
   (1, 0, 1, 0, 1, 1, 0) 0.698059 0.301941;
   (0, 1, 1, 0, 1, 1, 0) 0.435654 0.564346;
   (1, 1, 1, 0, 1, 1, 0) 0.687673 0.312327;
   (0, 0, 0, 1, 1, 1, 0) 0.473028 0.526972;
   (1, 0, 0, 1, 1, 1, 0) 0.730891 0.269109;
   (0, 1, 0, 1, 1, 1, 0) 0.7335 0.2665;
   (1, 1, 0, 1, 1, 1, 0) 0.700105 0.299895;
   (0, 0, 1, 1, 1, 1, 0) 0.530176 0.469824;
   (1, 0, 1, 1, 1, 1, 0) 0.73502 0.26498;
   (0, 1, 1, 1, 1, 1, 0) 0.66586 0.33414;
   (1, 1, 1, 1, 1, 1, 0) 0.791504 0.208496;
   (0, 0, 0, 0, 0, 2, 0) 0.67073 0.32927;
   (1, 0, 0, 0, 0, 2, 0) 0.562803 0.437197;
   (0, 1, 0, 0, 0, 2, 0) 0.634001 0.365999;
   (1, 1, 0, 0, 0, 2, 0) 0.805267 0.194733;
   (0, 0, 1, 0, 0, 2, 0) 0.446262 0.553738;
   (1, 0, 1, 0, 0, 2, 0) 0.684515 0.315485;
   (0, 1, 1, 0, 0, 2, 0) 0.666785 0.333215;
   (1, 1, 1, 0, 0, 2, 0) 0.524657 0.475343;
   (0, 0, 0, 1, 0, 2, 0) 0.43728 0.56272;
   (1, 0, 0, 1, 0, 2, 0) 0.718114 0.281886;
   (0, 1, 0, 1, 0, 2, 0) 0.520444 0.479556;
   (1, 1, 0, 1, 0, 2, 0) 0.645125 0.354875;
   (0, 0, 1, 1, 0, 2, 0) 0.767817 0.232183;
   (1, 0, 1, 1, 0, 2, 0) 0.670073 0.329927;
   (0, 1, 1, 1, 0, 2, 0) 0.586464 0.413536;
   (1, 1, 1, 1, 0, 2, 0) 0.550073 0.449927;
   (0, 0, 0, 0, 1, 2, 0) 0.768974 0.231026;
   (1, 0, 0, 0, 1, 2, 0) 0.749084 0.250916;
   (0, 1, 0, 0, 1, 2, 0) 0.579837 0.420163;
   (1, 1, 0, 0, 1, 2, 0) 0.667182 0.332818;
   (0, 0, 1, 0, 1, 2, 0) 0.71741 0.28259;
   (1, 0, 1, 0, 1, 2, 0) 0.562143 0.437857;
   (0, 1, 1, 0, 1, 2, 0) 0.805565 0.194435;
   (1, 1, 1, 0, 1, 2, 0) 0.690484 0.309516;
   (0, 0, 0, 1, 1, 2, 0) 0.688811 0.311189;
   (1, 0, 0, 1, 1, 2, 0) 0.640608 0.359392;
   (0, 1, 0, 1, 1, 2, 0) 0.525123 0.474877;
   (1, 1, 0, 1, 1, 2, 0) 0.71022 0.28978;
   (0, 0, 1, 1, 1, 2, 0) 0.723068 0.276932;
   (1, 0, 1, 1, 1, 2, 0) 0.489439 0.510561;
   (0, 1, 1, 1, 1, 2, 0) 0.604556 0.395444;
   (1, 1, 1, 1, 1, 2, 0) 0.409703 0.590297;
   (0, 0, 0, 0, 0, 3, 0) 0.531731 0.468269;
   (1, 0, 0, 0, 0, 3, 0) 0.630001 0.369999;
   (0, 1, 0, 0, 0, 3, 0) 0.602385 0.397615;
   (1, 1, 0, 0, 0, 3, 0) 0.582407 0.417593;
   (0, 0, 1, 0, 0, 3, 0) 0.439809 0.560191;
   (1, 0, 1, 0, 0, 3, 0) 0.62109 0.37891;
   (0, 1, 1, 0, 0, 3, 0) 0.443143 0.556857;
   (1, 1, 1, 0, 0, 3, 0) 0.515907 0.484093;
   (0, 0, 0, 1, 0, 3, 0) 0.667755 0.332245;
   (1, 0, 0, 1, 0, 3, 0) 0.683737 0.316263;
   (0, 1, 0, 1, 0, 3, 0) 0.617614 0.382386;
   (1, 1, 0, 1, 0, 3, 0) 0.620408 0.379592;
   (0, 0, 1, 1, 0, 3, 0) 0.792123 0.207877;
   (1, 0, 1, 1, 0, 3, 0) 0.698706 0.301294;
   (0, 1, 1, 1, 0, 3, 0) 0.56796 0.43204;
   (1, 1, 1, 1, 0, 3, 0) 0.641547 0.358453;
   (0, 0, 0, 0, 1, 3, 0) 0.705754 0.294246;
   (1, 0, 0, 0, 1, 3, 0) 0.714004 0.285996;
   (0, 1, 0, 0, 1, 3, 0) 0.600487 0.399513;
   (1, 1, 0, 0, 1, 3, 0) 0.706906 0.293094;
   (0, 0, 1, 0, 1, 3, 0) 0.713453 0.286547;
   (1, 0, 1, 0, 1, 3, 0) 0.455199 0.544801;
   (0, 1, 1, 0, 1, 3, 0) 0.781499 0.218501;
   (1, 1, 1, 0, 1, 3, 0) 0.334739 0.665261;
   (0, 0, 0, 1, 1, 3, 0) 0.551183 0.448817;
   (1, 0, 0, 1, 1, 3, 0) 0.537051 0.462949;
   (0, 1, 0, 1, 1, 3, 0) 0.674604 0.325396;
   (1, 1, 0, 1, 1, 3, 0) 0.728634 0.271366;
   (0, 0, 1, 1, 1, 3, 0) 0.619921 0.380079;
   (1, 0, 1, 1, 1, 3, 0) 0.621303 0.378697;
   (0, 1, 1, 1, 1, 3, 0) 0.600062 0.399938;
   (1, 1, 1, 1, 1, 3, 0) 0.582948 0.417052;
   (0, 0, 0, 0, 0, 0, 1) 0.637425 0.362575;
   (1, 0, 0, 0, 0, 0, 1) 0.574407 0.425593;
   (0, 1, 0, 0, 0, 0, 1) 0.615524 0.384476;
   (1, 1, 0, 0, 0, 0, 1) 0.778094 0.221906;
   (0, 0, 1, 0, 0, 0, 1) 0.698509 0.301491;
   (1, 0, 1, 0, 0, 0, 1) 0.671212 0.328788;
   (0, 1, 1, 0, 0, 0, 1) 0.711711 0.288289;
   (1, 1, 1, 0, 0, 0, 1) 0.596479 0.403521;
   (0, 0, 0, 1, 0, 0, 1) 0.548981 0.451019;
   (1, 0, 0, 1, 0, 0, 1) 0.651825 0.348175;
   (0, 1, 0, 1, 0, 0, 1) 0.772382 0.227618;
   (1, 1, 0, 1, 0, 0, 1) 0.669394 0.330606;
   (0, 0, 1, 1, 0, 0, 1) 0.708801 0.291199;
   (1, 0, 1, 1, 0, 0, 1) 0.787332 0.212668;
   (0, 1, 1, 1, 0, 0, 1) 0.627318 0.372682;
   (1, 1, 1, 1, 0, 0, 1) 0.452717 0.547283;
   (0, 0, 0, 0, 1, 0, 1) 0.586252 0.413748;
   (1, 0, 0, 0, 1, 0, 1) 0.403576 0.596424;
   (0, 1, 0, 0, 1, 0, 1) 0.579345 0.420655;
   (1, 1, 0, 0, 1, 0, 1) 0.543681 0.456319;
   (0, 0, 1, 0, 1, 0, 1) 0.637265 0.362735;
   (1, 0, 1, 0, 1, 0, 1) 0.677477 0.322523;
   (0, 1, 1, 0, 1, 0, 1) 0.662946 0.337054;
   (1, 1, 1, 0, 1, 0, 1) 0.511371 0.488629;
   (0, 0, 0, 1, 1, 0, 1) 0.515647 0.484353;
   (1, 0, 0, 1, 1, 0, 1) 0.691098 0.308902;
   (0, 1, 0, 1, 1, 0, 1) 0.695338 0.304662;
   (1, 1, 0, 1, 1, 0, 1) 0.731124 0.268876;
   (0, 0, 1, 1, 1, 0, 1) 0.649076 0.350924;
   (1, 0, 1, 1, 1, 0, 1) 0.797546 0.202454;
   (0, 1, 1, 1, 1, 0, 1) 0.675014 0.324986;
   (1, 1, 1, 1, 1, 0, 1) 0.621548 0.378452;
   (0, 0, 0, 0, 0, 1, 1) 0.481803 0.518197;
   (1, 0, 0, 0, 0, 1, 1) 0.584304 0.415696;
   (0, 1, 0, 0, 0, 1, 1) 0.700586 0.299414;
   (1, 1, 0, 0, 0, 1, 1) 0.677037 0.322963;
   (0, 0, 1, 0, 0, 1, 1) 0.805554 0.194446;
   (1, 0, 1, 0, 0, 1, 1) 0.299 0.701;
   (0, 1, 1, 0, 0, 1, 1) 0.745822 0.254178;
   (1, 1, 1, 0, 0, 1, 1) 0.53691 0.46309;
   (0, 0, 0, 1, 0, 1, 1) 0.568994 0.431006;
   (1, 0, 0, 1, 0, 1, 1) 0.489196 0.510804;
   (0, 1, 0, 1, 0, 1, 1) 0.606458 0.393542;
   (1, 1, 0, 1, 0, 1, 1) 0.641115 0.358885;
   (0, 0, 1, 1, 0, 1, 1) 0.699404 0.300596;
   (1, 0, 1, 1, 0, 1, 1) 0.409419 0.590581;
   (0, 1, 1, 1, 0, 1, 1) 0.598628 0.401372;
   (1, 1, 1, 1, 0, 1, 1) 0.529367 0.470633;
   (0, 0, 0, 0, 1, 1, 1) 0.494628 0.505372;
   (1, 0, 0, 0, 1, 1, 1) 0.819074 0.180926;
   (0, 1, 0, 0, 1, 1, 1) 0.404464 0.595536;
   (1, 1, 0, 0, 1, 1, 1) 0.726709 0.273291;
   (0, 0, 1, 0, 1, 1, 1) 0.686913 0.313087;
   (1, 0, 1, 0, 1, 1, 1) 0.73039 0.26961;
   (0, 1, 1, 0, 1, 1, 1) 0.537703 0.462297;
   (1, 1, 1, 0, 1, 1, 1) 0.618823 0.381177;
   (0, 0, 0, 1, 1, 1, 1) 0.720285 0.279715;
   (1, 0, 0, 1, 1, 1, 1) 0.605465 0.394535;
   (0, 1, 0, 1, 1, 1, 1) 0.6106 0.3894;
   (1, 1, 0, 1, 1, 1, 1) 0.499721 0.500279;
   (0, 0, 1, 1, 1, 1, 1) 0.655903 0.344097;
   (1, 0, 1, 1, 1, 1, 1) 0.520889 0.479111;
   (0, 1, 1, 1, 1, 1, 1) 0.440428 0.559572;
   (1, 1, 1, 1, 1, 1, 1) 0.763294 0.236706;
   (0, 0, 0, 0, 0, 2, 1) 0.55408 0.44592;
   (1, 0, 0, 0, 0, 2, 1) 0.736344 0.263656;
   (0, 1, 0, 0, 0, 2, 1) 0.681399 0.318601;
   (1, 1, 0, 0, 0, 2, 1) 0.678464 0.321536;
   (0, 0, 1, 0, 0, 2, 1) 0.610976 0.389024;
   (1, 0, 1, 0, 0, 2, 1) 0.560611 0.439389;
   (0, 1, 1, 0, 0, 2, 1) 0.627029 0.372971;
   (1, 1, 1, 0, 0, 2, 1) 0.391928 0.608072;
   (0, 0, 0, 1, 0, 2, 1) 0.73874 0.26126;
   (1, 0, 0, 1, 0, 2, 1) 0.600811 0.399189;
   (0, 1, 0, 1, 0, 2, 1) 0.446939 0.553061;
   (1, 1, 0, 1, 0, 2, 1) 0.692486 0.307514;
   (0, 0, 1, 1, 0, 2, 1) 0.726959 0.273041;
   (1, 0, 1, 1, 0, 2, 1) 0.538853 0.461147;
   (0, 1, 1, 1, 0, 2, 1) 0.664442 0.335558;
   (1, 1, 1, 1, 0, 2, 1) 0.662845 0.337155;
   (0, 0, 0, 0, 1, 2, 1) 0.55059 0.44941;
   (1, 0, 0, 0, 1, 2, 1) 0.82879 0.17121;
   (0, 1, 0, 0, 1, 2, 1) 0.551873 0.448127;
   (1, 1, 0, 0, 1, 2, 1) 0.650631 0.349369;
   (0, 0, 1, 0, 1, 2, 1) 0.581232 0.418768;
   (1, 0, 1, 0, 1, 2, 1) 0.571999 0.428001;
   (0, 1, 1, 0, 1, 2, 1) 0.744504 0.255496;
   (1, 1, 1, 0, 1, 2, 1) 0.6206 0.3794;
   (0, 0, 0, 1, 1, 2, 1) 0.477167 0.522833;
   (1, 0, 0, 1, 1, 2, 1) 0.722723 0.277277;
   (0, 1, 0, 1, 1, 2, 1) 0.615251 0.384749;
   (1, 1, 0, 1, 1, 2, 1) 0.47758 0.52242;
   (0, 0, 1, 1, 1, 2, 1) 0.661487 0.338513;
   (1, 0, 1, 1, 1, 2, 1) 0.550561 0.449439;
   (0, 1, 1, 1, 1, 2, 1) 0.672793 0.327207;
   (1, 1, 1, 1, 1, 2, 1) 0.597397 0.402603;
   (0, 0, 0, 0, 0, 3, 1) 0.659219 0.340781;
   (1, 0, 0, 0, 0, 3, 1) 0.520064 0.479936;
   (0, 1, 0, 0, 0, 3, 1) 0.620938 0.379062;
   (1, 1, 0, 0, 0, 3, 1) 0.600596 0.399404;
   (0, 0, 1, 0, 0, 3, 1) 0.683104 0.316896;
   (1, 0, 1, 0, 0, 3, 1) 0.600406 0.399594;
   (0, 1, 1, 0, 0, 3, 1) 0.687675 0.312325;
   (1, 1, 1, 0, 0, 3, 1) 0.340046 0.659954;
   (0, 0, 0, 1, 0, 3, 1) 0.700057 0.299943;
   (1, 0, 0, 1, 0, 3, 1) 0.722723 0.277277;
   (0, 1, 0, 1, 0, 3, 1) 0.710714 0.289286;
   (1, 1, 0, 1, 0, 3, 1) 0.738448 0.261552;
   (0, 0, 1, 1, 0, 3, 1) 0.477841 0.522159;
   (1, 0, 1, 1, 0, 3, 1) 0.753384 0.246616;
   (0, 1, 1, 1, 0, 3, 1) 0.61881 0.38119;
   (1, 1, 1, 1, 0, 3, 1) 0.564617 0.435383;
   (0, 0, 0, 0, 1, 3, 1) 0.63856 0.36144;
   (1, 0, 0, 0, 1, 3, 1) 0.702128 0.297872;
   (0, 1, 0, 0, 1, 3, 1) 0.827261 0.172739;
   (1, 1, 0, 0, 1, 3, 1) 0.728636 0.271364;
   (0, 0, 1, 0, 1, 3, 1) 0.444469 0.555531;
   (1, 0, 1, 0, 1, 3, 1) 0.604811 0.395189;
   (0, 1, 1, 0, 1, 3, 1) 0.592913 0.407087;
   (1, 1, 1, 0, 1, 3, 1) 0.592348 0.407652;
   (0, 0, 0, 1, 1, 3, 1) 0.5449 0.4551;
   (1, 0, 0, 1, 1, 3, 1) 0.632681 0.367319;
   (0, 1, 0, 1, 1, 3, 1) 0.588474 0.411526;
   (1, 1, 0, 1, 1, 3, 1) 0.669352 0.330648;
   (0, 0, 1, 1, 1, 3, 1) 0.618353 0.381647;
   (1, 0, 1, 1, 1, 3, 1) 0.689785 0.310215;
   (0, 1, 1, 1, 1, 3, 1) 0.788714 0.211286;
   (1, 1, 1, 1, 1, 3, 1) 0.559397 0.440603;
   (0, 0, 0, 0, 0, 0, 2) 0.609712 0.390288;
   (1, 0, 0, 0, 0, 0, 2) 0.648336 0.351664;
   (0, 1, 0, 0, 0, 0, 2) 0.729209 0.270791;
   (1, 1, 0, 0, 0, 0, 2) 0.75008 0.24992;
   (0, 0, 1, 0, 0, 0, 2) 0.743702 0.256298;
   (1, 0, 1, 0, 0, 0, 2) 0.747997 0.252003;
   (0, 1, 1, 0, 0, 0, 2) 0.507128 0.492872;
   (1, 1, 1, 0, 0, 0, 2) 0.688117 0.311883;
   (0, 0, 0, 1, 0, 0, 2) 0.50676 0.49324;
   (1, 0, 0, 1, 0, 0, 2) 0.486465 0.513535;
   (0, 1, 0, 1, 0, 0, 2) 0.506769 0.493231;
   (1, 1, 0, 1, 0, 0, 2) 0.72549 0.27451;
   (0, 0, 1, 1, 0, 0, 2) 0.585412 0.414588;
   (1, 0, 1, 1, 0, 0, 2) 0.652343 0.347657;
   (0, 1, 1, 1, 0, 0, 2) 0.655823 0.344177;
   (1, 1, 1, 1, 0, 0, 2) 0.770077 0.229923;
   (0, 0, 0, 0, 1, 0, 2) 0.492441 0.507559;
   (1, 0, 0, 0, 1, 0, 2) 0.685451 0.314549;
   (0, 1, 0, 0, 1, 0, 2) 0.688308 0.311692;
   (1, 1, 0, 0, 1, 0, 2) 0.632067 0.367933;
   (0, 0, 1, 0, 1, 0, 2) 0.709936 0.290064;
   (1, 0, 1, 0, 1, 0, 2) 0.656756 0.343244;
   (0, 1, 1, 0, 1, 0, 2) 0.622544 0.377456;
   (1, 1, 1, 0, 1, 0, 2) 0.787895 0.212105;
   (0, 0, 0, 1, 1, 0, 2) 0.472196 0.527804;
   (1, 0, 0, 1, 1, 0, 2) 0.548672 0.451328;
   (0, 1, 0, 1, 1, 0, 2) 0.62651 0.37349;
   (1, 1, 0, 1, 1, 0, 2) 0.57039 0.42961;
   (0, 0, 1, 1, 1, 0, 2) 0.532485 0.467515;
   (1, 0, 1, 1, 1, 0, 2) 0.611053 0.388947;
   (0, 1, 1, 1, 1, 0, 2) 0.660904 0.339096;
   (1, 1, 1, 1, 1, 0, 2) 0.488942 0.511058;
   (0, 0, 0, 0, 0, 1, 2) 0.633322 0.366678;
   (1, 0, 0, 0, 0, 1, 2) 0.484094 0.515906;
   (0, 1, 0, 0, 0, 1, 2) 0.529756 0.470244;
   (1, 1, 0, 0, 0, 1, 2) 0.571576 0.428424;
   (0, 0, 1, 0, 0, 1, 2) 0.589871 0.410129;
   (1, 0, 1, 0, 0, 1, 2) 0.691033 0.308967;
   (0, 1, 1, 0, 0, 1, 2) 0.543049 0.456951;
   (1, 1, 1, 0, 0, 1, 2) 0.747208 0.252792;
   (0, 0, 0, 1, 0, 1, 2) 0.728747 0.271253;
   (1, 0, 0, 1, 0, 1, 2) 0.793521 0.206479;
   (0, 1, 0, 1, 0, 1, 2) 0.541796 0.458204;
   (1, 1, 0, 1, 0, 1, 2) 0.651449 0.348551;
   (0, 0, 1, 1, 0, 1, 2) 0.442266 0.557734;
   (1, 0, 1, 1, 0, 1, 2) 0.608251 0.391749;
   (0, 1, 1, 1, 0, 1, 2) 0.637328 0.362672;
   (1, 1, 1, 1, 0, 1, 2) 0.594415 0.405585;
   (0, 0, 0, 0, 1, 1, 2) 0.751858 0.248142;
   (1, 0, 0, 0, 1, 1, 2) 0.696931 0.303069;
   (0, 1, 0, 0, 1, 1, 2) 0.756759 0.243241;
   (1, 1, 0, 0, 1, 1, 2) 0.632462 0.367538;
   (0, 0, 1, 0, 1, 1, 2) 0.803261 0.196739;
   (1, 0, 1, 0, 1, 1, 2) 0.720432 0.279568;
   (0, 1, 1, 0, 1, 1, 2) 0.561743 0.438257;
   (1, 1, 1, 0, 1, 1, 2) 0.832332 0.167668;
   (0, 0, 0, 1, 1, 1, 2) 0.57561 0.42439;
   (1, 0, 0, 1, 1, 1, 2) 0.730779 0.269221;
   (0, 1, 0, 1, 1, 1, 2) 0.718255 0.281745;
   (1, 1, 0, 1, 1, 1, 2) 0.667658 0.332342;
   (0, 0, 1, 1, 1, 1, 2) 0.550304 0.449696;
   (1, 0, 1, 1, 1, 1, 2) 0.647834 0.352166;
   (0, 1, 1, 1, 1, 1, 2) 0.736952 0.263048;
   (1, 1, 1, 1, 1, 1, 2) 0.6529 0.3471;
   (0, 0, 0, 0, 0, 2, 2) 0.635957 0.364043;
   (1, 0, 0, 0, 0, 2, 2) 0.506204 0.493796;
   (0, 1, 0, 0, 0, 2, 2) 0.515068 0.484932;
   (1, 1, 0, 0, 0, 2, 2) 0.483425 0.516575;
   (0, 0, 1, 0, 0, 2, 2) 0.456293 0.543707;
   (1, 0, 1, 0, 0, 2, 2) 0.656751 0.343249;
   (0, 1, 1, 0, 0, 2, 2) 0.743279 0.256721;
   (1, 1, 1, 0, 0, 2, 2) 0.591438 0.408562;
   (0, 0, 0, 1, 0, 2, 2) 0.690176 0.309824;
   (1, 0, 0, 1, 0, 2, 2) 0.577835 0.422165;
   (0, 1, 0, 1, 0, 2, 2) 0.724902 0.275098;
   (1, 1, 0, 1, 0, 2, 2) 0.626946 0.373054;
   (0, 0, 1, 1, 0, 2, 2) 0.572651 0.427349;
   (1, 0, 1, 1, 0, 2, 2) 0.634903 0.365097;
   (0, 1, 1, 1, 0, 2, 2) 0.734775 0.265225;
   (1, 1, 1, 1, 0, 2, 2) 0.711463 0.288537;
   (0, 0, 0, 0, 1, 2, 2) 0.794735 0.205265;
   (1, 0, 0, 0, 1, 2, 2) 0.671505 0.328495;
   (0, 1, 0, 0, 1, 2, 2) 0.636013 0.363987;
   (1, 1, 0, 0, 1, 2, 2) 0.58306 0.41694;
   (0, 0, 1, 0, 1, 2, 2) 0.563617 0.436383;
   (1, 0, 1, 0, 1, 2, 2) 0.795777 0.204223;
   (0, 1, 1, 0, 1, 2, 2) 0.622446 0.377554;
   (1, 1, 1, 0, 1, 2, 2) 0.343086 0.656914;
   (0, 0, 0, 1, 1, 2, 2) 0.671054 0.328946;
   (1, 0, 0, 1, 1, 2, 2) 0.356024 0.643976;
   (0, 1, 0, 1, 1, 2, 2) 0.686685 0.313315;
   (1, 1, 0, 1, 1, 2, 2) 0.540777 0.459223;
   (0, 0, 1, 1, 1, 2, 2) 0.530264 0.469736;
   (1, 0, 1, 1, 1, 2, 2) 0.657477 0.342523;
   (0, 1, 1, 1, 1, 2, 2) 0.47116 0.52884;
   (1, 1, 1, 1, 1, 2, 2) 0.672649 0.327351;
   (0, 0, 0, 0, 0, 3, 2) 0.631527 0.368473;
   (1, 0, 0, 0, 0, 3, 2) 0.613876 0.386124;
   (0, 1, 0, 0, 0, 3, 2) 0.563346 0.436654;
   (1, 1, 0, 0, 0, 3, 2) 0.658118 0.341882;
   (0, 0, 1, 0, 0, 3, 2) 0.703516 0.296484;
   (1, 0, 1, 0, 0, 3, 2) 0.667372 0.332628;
   (0, 1, 1, 0, 0, 3, 2) 0.700627 0.299373;
   (1, 1, 1, 0, 0, 3, 2) 0.728683 0.271317;
   (0, 0, 0, 1, 0, 3, 2) 0.523698 0.476302;
   (1, 0, 0, 1, 0, 3, 2) 0.655496 0.344504;
   (0, 1, 0, 1, 0, 3, 2) 0.621696 0.378304;
   (1, 1, 0, 1, 0, 3, 2) 0.772044 0.227956;
   (0, 0, 1, 1, 0, 3, 2) 0.657369 0.342631;
   (1, 0, 1, 1, 0, 3, 2) 0.538866 0.461134;
   (0, 1, 1, 1, 0, 3, 2) 0.584524 0.415476;
   (1, 1, 1, 1, 0, 3, 2) 0.653165 0.346835;
   (0, 0, 0, 0, 1, 3, 2) 0.721166 0.278834;
   (1, 0, 0, 0, 1, 3, 2) 0.505914 0.494086;
   (0, 1, 0, 0, 1, 3, 2) 0.746684 0.253316;
   (1, 1, 0, 0, 1, 3, 2) 0.547179 0.452821;
   (0, 0, 1, 0, 1, 3, 2) 0.578473 0.421527;
   (1, 0, 1, 0, 1, 3, 2) 0.839263 0.160737;
   (0, 1, 1, 0, 1, 3, 2) 0.685003 0.314997;
   (1, 1, 1, 0, 1, 3, 2) 0.697391 0.302609;
   (0, 0, 0, 1, 1, 3, 2) 0.401766 0.598234;
   (1, 0, 0, 1, 1, 3, 2) 0.594976 0.405024;
   (0, 1, 0, 1, 1, 3, 2) 0.801622 0.198378;
   (1, 1, 0, 1, 1, 3, 2) 0.81692 0.18308;
   (0, 0, 1, 1, 1, 3, 2) 0.436468 0.563532;
   (1, 0, 1, 1, 1, 3, 2) 0.768678 0.231322;
   (0, 1, 1, 1, 1, 3, 2) 0.25174 0.74826;
   (1, 1, 1, 1, 1, 3, 2) 0.510981 0.489019;
   (0, 0, 0, 0, 0, 0, 3) 0.538767 0.461233;
   (1, 0, 0, 0, 0, 0, 3) 0.651393 0.348607;
   (0, 1, 0, 0, 0, 0, 3) 0.620607 0.379393;
   (1, 1, 0, 0, 0, 0, 3) 0.741134 0.258866;
   (0, 0, 1, 0, 0, 0, 3) 0.750072 0.249928;
   (1, 0, 1, 0, 0, 0, 3) 0.695843 0.304157;
   (0, 1, 1, 0, 0, 0, 3) 0.663677 0.336323;
   (1, 1, 1, 0, 0, 0, 3) 0.582947 0.417053;
   (0, 0, 0, 1, 0, 0, 3) 0.520591 0.479409;
   (1, 0, 0, 1, 0, 0, 3) 0.723064 0.276936;
   (0, 1, 0, 1, 0, 0, 3) 0.670979 0.329021;
   (1, 1, 0, 1, 0, 0, 3) 0.71303 0.28697;
   (0, 0, 1, 1, 0, 0, 3) 0.770019 0.229981;
   (1, 0, 1, 1, 0, 0, 3) 0.585608 0.414392;
   (0, 1, 1, 1, 0, 0, 3) 0.790872 0.209128;
   (1, 1, 1, 1, 0, 0, 3) 0.633866 0.366134;
   (0, 0, 0, 0, 1, 0, 3) 0.502824 0.497176;
   (1, 0, 0, 0, 1, 0, 3) 0.745251 0.254749;
   (0, 1, 0, 0, 1, 0, 3) 0.597769 0.402231;
   (1, 1, 0, 0, 1, 0, 3) 0.737264 0.262736;
   (0, 0, 1, 0, 1, 0, 3) 0.591795 0.408205;
   (1, 0, 1, 0, 1, 0, 3) 0.627551 0.372449;
   (0, 1, 1, 0, 1, 0, 3) 0.401697 0.598303;
   (1, 1, 1, 0, 1, 0, 3) 0.571384 0.428616;
   (0, 0, 0, 1, 1, 0, 3) 0.548985 0.451015;
   (1, 0, 0, 1, 1, 0, 3) 0.786853 0.213147;
   (0, 1, 0, 1, 1, 0, 3) 0.652364 0.347636;
   (1, 1, 0, 1, 1, 0, 3) 0.670673 0.329327;
   (0, 0, 1, 1, 1, 0, 3) 0.801284 0.198716;
   (1, 0, 1, 1, 1, 0, 3) 0.453505 0.546495;
   (0, 1, 1, 1, 1, 0, 3) 0.59183 0.40817;
   (1, 1, 1, 1, 1, 0, 3) 0.82272 0.17728;
   (0, 0, 0, 0, 0, 1, 3) 0.718552 0.281448;
   (1, 0, 0, 0, 0, 1, 3) 0.684843 0.315157;
   (0, 1, 0, 0, 0, 1, 3) 0.732461 0.267539;
   (1, 1, 0, 0, 0, 1, 3) 0.495535 0.504465;
   (0, 0, 1, 0, 0, 1, 3) 0.595121 0.404879;
   (1, 0, 1, 0, 0, 1, 3) 0.733047 0.266953;
   (0, 1, 1, 0, 0, 1, 3) 0.654721 0.345279;
   (1, 1, 1, 0, 0, 1, 3) 0.677866 0.322134;
   (0, 0, 0, 1, 0, 1, 3) 0.803028 0.196972;
   (1, 0, 0, 1, 0, 1, 3) 0.703568 0.296432;
   (0, 1, 0, 1, 0, 1, 3) 0.726704 0.273296;
   (1, 1, 0, 1, 0, 1, 3) 0.518235 0.481765;
   (0, 0, 1, 1, 0, 1, 3) 0.514764 0.485236;
   (1, 0, 1, 1, 0, 1, 3) 0.679304 0.320696;
   (0, 1, 1, 1, 0, 1, 3) 0.415859 0.584141;
   (1, 1, 1, 1, 0, 1, 3) 0.586966 0.413034;
   (0, 0, 0, 0, 1, 1, 3) 0.492082 0.507918;
   (1, 0, 0, 0, 1, 1, 3) 0.780524 0.219476;
   (0, 1, 0, 0, 1, 1, 3) 0.805087 0.194913;
   (1, 1, 0, 0, 1, 1, 3) 0.58071 0.41929;
   (0, 0, 1, 0, 1, 1, 3) 0.613752 0.386248;
   (1, 0, 1, 0, 1, 1, 3) 0.741494 0.258506;
   (0, 1, 1, 0, 1, 1, 3) 0.649707 0.350293;
   (1, 1, 1, 0, 1, 1, 3) 0.61164 0.38836;
   (0, 0, 0, 1, 1, 1, 3) 0.611229 0.388771;
   (1, 0, 0, 1, 1, 1, 3) 0.80818 0.19182;
   (0, 1, 0, 1, 1, 1, 3) 0.710948 0.289052;
   (1, 1, 0, 1, 1, 1, 3) 0.559482 0.440518;
   (0, 0, 1, 1, 1, 1, 3) 0.64264 0.35736;
   (1, 0, 1, 1, 1, 1, 3) 0.692528 0.307472;
   (0, 1, 1, 1, 1, 1, 3) 0.571753 0.428247;
   (1, 1, 1, 1, 1, 1, 3) 0.724779 0.275221;
   (0, 0, 0, 0, 0, 2, 3) 0.699746 0.300254;
   (1, 0, 0, 0, 0, 2, 3) 0.651954 0.348046;
   (0, 1, 0, 0, 0, 2, 3) 0.573995 0.426005;
   (1, 1, 0, 0, 0, 2, 3) 0.72938 0.27062;
   (0, 0, 1, 0, 0, 2, 3) 0.757165 0.242835;
   (1, 0, 1, 0, 0, 2, 3) 0.588914 0.411086;
   (0, 1, 1, 0, 0, 2, 3) 0.599761 0.400239;
   (1, 1, 1, 0, 0, 2, 3) 0.506167 0.493833;
   (0, 0, 0, 1, 0, 2, 3) 0.720992 0.279008;
   (1, 0, 0, 1, 0, 2, 3) 0.495967 0.504033;
   (0, 1, 0, 1, 0, 2, 3) 0.737176 0.262824;
   (1, 1, 0, 1, 0, 2, 3) 0.638912 0.361088;
   (0, 0, 1, 1, 0, 2, 3) 0.423263 0.576737;
   (1, 0, 1, 1, 0, 2, 3) 0.608553 0.391447;
   (0, 1, 1, 1, 0, 2, 3) 0.70862 0.29138;
   (1, 1, 1, 1, 0, 2, 3) 0.606617 0.393383;
   (0, 0, 0, 0, 1, 2, 3) 0.820353 0.179647;
   (1, 0, 0, 0, 1, 2, 3) 0.522915 0.477085;
   (0, 1, 0, 0, 1, 2, 3) 0.756912 0.243088;
   (1, 1, 0, 0, 1, 2, 3) 0.709226 0.290774;
   (0, 0, 1, 0, 1, 2, 3) 0.676277 0.323723;
   (1, 0, 1, 0, 1, 2, 3) 0.819722 0.180278;
   (0, 1, 1, 0, 1, 2, 3) 0.78023 0.21977;
   (1, 1, 1, 0, 1, 2, 3) 0.461463 0.538537;
   (0, 0, 0, 1, 1, 2, 3) 0.550166 0.449834;
   (1, 0, 0, 1, 1, 2, 3) 0.610747 0.389253;
   (0, 1, 0, 1, 1, 2, 3) 0.559458 0.440542;
   (1, 1, 0, 1, 1, 2, 3) 0.671138 0.328862;
   (0, 0, 1, 1, 1, 2, 3) 0.436682 0.563318;
   (1, 0, 1, 1, 1, 2, 3) 0.731361 0.268639;
   (0, 1, 1, 1, 1, 2, 3) 0.639298 0.360702;
   (1, 1, 1, 1, 1, 2, 3) 0.756464 0.243536;
   (0, 0, 0, 0, 0, 3, 3) 0.694677 0.305323;
   (1, 0, 0, 0, 0, 3, 3) 0.419946 0.580054;
   (0, 1, 0, 0, 0, 3, 3) 0.72385 0.27615;
   (1, 1, 0, 0, 0, 3, 3) 0.574388 0.425612;
   (0, 0, 1, 0, 0, 3, 3) 0.690293 0.309707;
   (1, 0, 1, 0, 0, 3, 3) 0.459859 0.540141;
   (0, 1, 1, 0, 0, 3, 3) 0.745472 0.254528;
   (1, 1, 1, 0, 0, 3, 3) 0.561109 0.438891;
   (0, 0, 0, 1, 0, 3, 3) 0.558016 0.441984;
   (1, 0, 0, 1, 0, 3, 3) 0.523567 0.476433;
   (0, 1, 0, 1, 0, 3, 3) 0.547353 0.452647;
   (1, 1, 0, 1, 0, 3, 3) 0.392894 0.607106;
   (0, 0, 1, 1, 0, 3, 3) 0.398089 0.601911;
   (1, 0, 1, 1, 0, 3, 3) 0.273431 0.726569;
   (0, 1, 1, 1, 0, 3, 3) 0.732511 0.267489;
   (1, 1, 1, 1, 0, 3, 3) 0.71682 0.28318;
   (0, 0, 0, 0, 1, 3, 3) 0.767033 0.232967;
   (1, 0, 0, 0, 1, 3, 3) 0.640191 0.359809;
   (0, 1, 0, 0, 1, 3, 3) 0.647392 0.352608;
   (1, 1, 0, 0, 1, 3, 3) 0.747727 0.252273;
   (0, 0, 1, 0, 1, 3, 3) 0.550085 0.449915;
   (1, 0, 1, 0, 1, 3, 3) 0.613517 0.386483;
   (0, 1, 1, 0, 1, 3, 3) 0.635404 0.364596;
   (1, 1, 1, 0, 1, 3, 3) 0.599923 0.400077;
   (0, 0, 0, 1, 1, 3, 3) 0.469636 0.530364;
   (1, 0, 0, 1, 1, 3, 3) 0.592418 0.407582;
   (0, 1, 0, 1, 1, 3, 3) 0.523847 0.476153;
   (1, 1, 0, 1, 1, 3, 3) 0.419032 0.580968;
   (0, 0, 1, 1, 1, 3, 3) 0.718726 0.281274;
   (1, 0, 1, 1, 1, 3, 3) 0.71412 0.28588;
   (0, 1, 1, 1, 1, 3, 3) 0.741111 0.258889;
   (1, 1, 1, 1, 1, 3, 3) 0.580223 0.419777;
}
probability (casualties) {
   default 0.503018 0.496982;
}
probability (emergencyType) {
   default 0.364185 0.323944 0.311871;
}
probability (roadPassibility) {
   default 0.511066 0.488934;
}
probability (roadLoss) {
   default 0.539235 0.460765;
}
probability (AidResource) {
   default 0.545272 0.454728;
}
probability (TowResource) {
   default 0.517103 0.482897;
}
probability (FirefightingResource) {
   default 0.501006 0.498994;
}
probability (RescueResource) {
   default 0.503018 0.496982;
}
probability (disposalDuration) {
   default 0.175662 0.257991 0.450718 0.11563;
}
probability (emergencyPeriod) {
   default 0.273642 0.249497 0.241449 0.235412;
}
probability (responseDuration) {
   default 0.796848 0.203152 0 0;
}

